0.7247045793418633 -0.03155846858680167 2.063945023797838 -3.3555385135864615 0.06102601277223424 -0.57332349087275 0.9710279135884838 0.10976972116442812 2.4810447038617007 -1.465824233614562 -0.8955245921008468 -1.2843100894202581
-0.14173328856335804 0.5171435599025191 -0.3713368890501624 -0.562103579556507 -1.2583189924449567 0.29921642235384877 0.7709250407627402 -0.5005078088941465 0.40830408759745535 1.0867493413021925 -0.1976898460055719 -0.556527602674948
0.8436346074053994 0.06404047309277763 1.1252975983147702 0.8523524843775309 -0.0982525700471289 0.30610418254791794 -2.3151184192052856 1.1393929343895524 0.45213137534028913 -1.3308336958690314 -0.4539515683639054 1.0209754487133476
1.5491930083401932 1.141894979295085 -0.7647130232785972 -1.7161639669736806 -1.729061338545633 -2.09652932626581 -0.18205169311519664 1.0473912553990565 3.139232940442791 0.23376375427752785 -0.2628865034654277 -1.7412250546536419
-0.4735763299161036 0.4068193838863814 -2.0722555702039562 0.948287220338221 -1.0500695920534784 0.3062354208128985 -0.10838273320738714 -1.289738614155343 -0.09541130898780208 -0.5082311538560889 0.3542079707921388 0.89499094684121
-0.07454841572154237 0.19866428954330256 -0.8315771802848962 -2.494119742813396 -3.2359090742090677 0.17905733085299916 0.2797536830982103 -0.888479372458765 -0.4254263140605552 -1.8987284182384105 -0.3018938598396026 -0.7111184331727213
0.11990468721997319 2.241943057774309 0.9153372821970921 -4.438131527332836 -0.42999428647897564 -0.9659657356999463 0.05691197295907409 -0.13927093581167369 1.9358590212422522 -2.464767923203188 -0.7283719498092882 -0.10136678104972754
1.0169635592085693 -0.17529469914647886 0.2753688193013134 -0.7257725765313819 -0.15620944750847046 -0.2896390990719895 -1.5243546759423836 -1.0383746609338576 0.5732077242148189 1.1844274377267487 0.002576402030547155 -0.17579255263063406
0.5156543931778448 -1.2128988424426188 -0.4409620091464872 -1.972295565732545 -0.030390063245068474 -0.8873426914511692 0.8663152187219432 -1.2942415311870108 1.2092339074478065 -0.6280325055073239 -1.192262806020307 0.6153367511937436
-2.1162347624776117 -0.5647759638057277 -0.8775777956095562 -0.30316324099049385 -0.77330701635699 -1.5820284891164091 0.9774735919198164 0.9304469543022293 -0.1575292584758857 0.566605772389386 -1.1596211884938303 0.12973000098369192
0.7989846182631052 0.6039514811421502 -0.23047133807349166 -1.5866146114145887 -1.4103043136863842 1.0545539547741918 0.6995853959318045 -2.483613995757573 2.0064707008596896 1.1755743519307227 -1.7478652087538262 -0.5218507342665254
