1.2181162688729532 1.5098941469534155 -4.371115661927542 -1.299122375027662 0.03045497520340501 1.4066089181240238 0.4660964402662547 -2.2368276155228015 1.273281813375263 3.4636003550292704 1.9472076032355856 -3.4524231894787407
0.7212607459884925 0.569646674374294 -1.7447600202662354 -2.0883083973508674 -0.7353750771668444 0.22872990393114703 -0.5345108496489643 -0.5589680668590987 1.8974998257657814 0.8820481748039076 1.6998956299990813 -1.0645471112185412
-1.2451534775497917 0.043784937822434145 -2.718514862666945 -2.369942342866966 1.2245473896340902 -0.8858136495899924 1.1662817199135869 -4.142078350927434 2.6925298277775864 2.236923848166885 2.4817755906411576 -0.8165580187081449
-0.7645683423666079 -0.48331765892173073 0.4804611642687735 -1.205605179454521 0.7224116684807838 1.795062931696085 1.5309086215880903 0.22896572875912535 0.4472284232432817 -0.7337148933929436 0.664385260800389 0.496103097956359
1.1207646147702577 1.037953661133237 -0.8261460018742013 0.15927676275008074 -1.0483660632410488 -1.051353404697409 0.8615380748531808 -1.7300532760958833 -0.563350591804263 1.3510694598653856 0.4329590449663539 -0.2439391609596625
-0.1298078766713818 -0.17243681132404082 0.8847767757792041 -1.064113364945098 0.2823736947764939 0.19832060550625846 0.44992955665652823 -0.4788240401418338 0.11700904532812922 -0.326868028693273 -1.3087626097148484 0.695797212530791
-1.4175738317682434 -0.8237886616072086 -5.295770774787399 -1.2179875831069624 0.9203131591413432 -1.7579508636880252 -1.6750733846128625 -2.7669389612639184 3.8507485321674513 3.449133618840088 1.2268161314822164 -2.8062196894392875
0.2770208908475462 0.6083687785058323 1.4045322052451914 0.5495469276652809 -0.1548747766224315 0.44181359417909566 -0.2672367513751891 -1.0293257111154137 0.6146913214390374 2.8323905400011493 -0.6805247531135514 -0.30637269019138214
1.098356926815933 1.424541997461498 -0.3233855052108921 -1.9679970947330876 -0.130951891738321 -0.4872299576386618 0.2318359293899926 -0.20948172114300487 2.4624924098710226 1.52058662412686 1.4039433689793326 -0.7117141581627457
-1.0877943309358094 -0.9319224894725369 -0.4309941901360175 -2.1131509269331805 0.13606335883481582 -3.119214109318498 0.974001521542282 -0.05462456118151526 -0.4182708010276954 0.8707376902232075 3.1412847913917474 -0.8601087797086793
-0.5564148822967507 0.9576552942869816 0.1645932217810301 1.6227401231727494 -0.8411801920735829 2.037888746014926 -0.7783365499620071 1.8266407817145942 -1.3896083932142533 -0.18694153562962834 0.9336207290931159 -0.3254487533675793
-1.7277387791774468 -0.724819074732892 -2.388980305226785 -1.3487022824920374 1.7406284688104021 0.04619454974489013 0.6524746291692431 1.7896880613703978 0.7789701111512549 -1.542477000757936 -0.9327591922815224 -0.8630111864444613
